{"learner":{"attributes":{},"feature_names":["amount","hour","day_of_week"],"feature_types":["float","int","int"],"gradient_booster":{"model":{"cats":{"enc":[],"feature_segments":[],"sorted_idx":[]},"gbtree_model_param":{"num_parallel_tree":"1","num_trees":"20"},"iteration_indptr":[0,1,2,3,4,5,6,7,8,9,10,11,12,13,14,15,16,17,18,19,20],"tree_info":[0,0,0,0,0,0,0,0,0,0,0,0,0,0,0,0,0,0,0,0],"trees":[{"base_weights":[1.7929911E-7,-1.671458E-1,1.0540606E0,-4.9064592E-1,5.0532307E-2,4.0376693E-1,-5.016767E-1,-6.024973E-1,-4.3555282E-2,-2.0964284E-1,4.1782635E-1,-8.254593E-2,-6.3052485E-3,-8.0498405E-2,-2.749086E-2,3.444095E-2,-6.637005E-2,3.1679902E-2,-3.4717616E-2,1.3394176E-3,1.0053416E-1,4.594855E-2,-3.36658E-2],"categories":[],"categories_nodes":[],"categories_segments":[],"categories_sizes":[],"default_left":[0,0,0,0,0,0,0,0,0,0,0,0,0,0,0,0,0,0,0,0,0,0,0],"id":0,"left_children":[1,3,5,7,9,-1,11,13,15,17,19,-1,21,-1,-1,-1,-1,-1,-1,-1,-1,-1,-1],"loss_changes":[1.2124136E1,4.207477E0,4.5745026E1,1.1731782E0,3.5671992E0,0E0,1.1304162E0,1.046124E0,1.6426951E0,1.7014253E0,3.653394E0,0E0,7.4038047E-1,0E0,0E0,0E0,0E0,0E0,0E0,0E0,0E0,0E0,0E0],"parents":[2147483647,0,0,1,1,2,2,3,3,4,4,6,6,7,7,8,8,9,9,10,10,12,12],"right_children":[2,4,6,8,10,-1,12,14,16,18,20,-1,22,-1,-1,-1,-1,-1,-1,-1,-1,-1,-1],"split_conditions":[3.147913E2,5.9792404E1,5E0,1.8E1,1.4E1,4.0376693E-1,4E0,4E0,3.815737E1,8.306349E1,4E0,-8.254593E-2,1.2E1,-8.0498405E-2,-2.749086E-2,3.444095E-2,-6.637005E-2,3.1679902E-2,-3.4717616E-2,1.3394176E-3,1.0053416E-1,4.594855E-2,-3.36658E-2],"split_indices":[0,0,1,1,1,0,2,2,0,0,2,0,1,0,0,0,0,0,0,0,0,0,0],"split_type":[0,0,0,0,0,0,0,0,0,0,0,0,0,0,0,0,0,0,0,0,0,0,0],"sum_hessian":[6.6815994E1,5.839718E1,8.418816E0,2.2984703E1,3.5412476E1,2.3385599E0,6.0802555E0,1.8107134E1,4.877568E0,2.0980223E1,1.4432255E1,3.2739837E0,2.8062718E0,1.0289663E1,7.8174715E0,3.2739837E0,1.6035838E0,4.0757756E0,1.6904448E1,9.153791E0,5.2784634E0,1.00224E0,1.8040318E0],"tree_param":{"num_deleted":"0","num_feature":"3","num_nodes":"23","size_leaf_vector":"1"}},{"base_weights":[4.937738E-4,-2.3601323E-1,6.344297E-1,-3.0187365E-1,8.2694285E-2,2.1363082E0,-1.05191514E-1,-5.336984E-1,-9.537937E-2,3.0844498E-2,2.89803E-1,1.13834634E-1,-3.8707954E-1,-6.476277E-2,7.7943704E-3,3.9276324E-2,-3.2263227E-2,-8.574151E-2,-3.6468997E-3],"categories":[],"categories_nodes":[],"categories_segments":[],"categories_sizes":[],"default_left":[0,0,0,0,0,0,0,0,0,0,0,0,0,0,0,0,0,0,0],"id":1,"left_children":[1,3,5,7,-1,9,11,13,15,-1,-1,-1,17,-1,-1,-1,-1,-1,-1],"loss_changes":[1.0305848E1,3.754345E0,2.0970863E1,2.2408576E0,0E0,7.751789E0,5.1612873E0,1.6069512E0,3.0706298E0,0E0,0E0,0E0,1.9021612E0,0E0,0E0,0E0,0E0,0E0,0E0],"parents":[2147483647,0,0,1,1,2,2,3,3,5,5,6,6,7,7,8,8,12,12],"right_children":[2,4,6,8,-1,10,12,14,16,-1,-1,-1,18,-1,-1,-1,-1,-1,-1],"split_conditions":[2.0085262E2,2.3E1,5E0,5.9792404E1,8.2694285E-2,3.147913E2,2.2410039E2,6E0,9.0342354E1,3.0844498E-2,2.89803E-1,1.13834634E-1,3E0,-6.476277E-2,7.7943704E-3,3.9276324E-2,-3.2263227E-2,-8.574151E-2,-3.6468997E-3],"split_indices":[0,1,1,0,0,0,0,2,0,0,0,0,2,0,0,0,0,0,0],"split_type":[0,0,0,0,0,0,0,0,0,0,0,0,0,0,0,0,0,0,0],"sum_hessian":[6.6738914E1,4.906251E1,1.7676401E1,4.6874207E1,2.1883059E0,5.2095275E0,1.2466873E1,2.1336176E1,2.553803E1,1.9456315E0,3.263896E0,1.7423358E0,1.0724538E1,1.793637E1,3.3998053E0,7.8810687E0,1.7656961E1,3.962905E0,6.761633E0],"tree_param":{"num_deleted":"0","num_feature":"3","num_nodes":"19","size_leaf_vector":"1"}},{"base_weights":[3.2478273E-3,-2.171801E-1,5.601974E-1,-3.543363E-1,2.877307E-1,1.7179873E0,-9.542334E-2,-8.598367E-2,-2.70238E-1,7.387145E-4,8.748725E-1,2.8278697E-2,2.227633E-1,9.98184E-2,-3.665952E-1,-1.6917348E-2,-8.5468456E-2,4.47137E-2,-2.4393367E-2,1.7836837E-2,1.2587842E-1,-8.395066E-2,-3.338774E-3],"categories":[],"categories_nodes":[],"categories_segments":[],"categories_sizes":[],"default_left":[0,0,0,0,0,0,0,0,0,0,0,0,0,0,0,0,0,0,0,0,0,0,0],"id":2,"left_children":[1,3,5,7,9,11,13,-1,15,17,19,-1,-1,-1,21,-1,-1,-1,-1,-1,-1,-1,-1],"loss_changes":[8.403185E0,3.4987493E0,1.4895271E1,1.4264579E0,1.8579257E0,4.540663E0,4.3213887E0,0E0,1.9176035E0,1.0275543E0,7.4355435E-1,0E0,0E0,0E0,1.7713847E0,0E0,0E0,0E0,0E0,0E0,0E0,0E0,0E0],"parents":[2147483647,0,0,1,1,2,2,3,3,4,4,5,5,6,6,8,8,9,9,10,10,14,14],"right_children":[2,4,6,8,10,12,14,-1,16,18,20,-1,-1,-1,22,-1,-1,-1,-1,-1,-1,-1,-1],"split_conditions":[2.0085262E2,1.9E1,5E0,1.3079099E1,1.23467186E2,3.147913E2,2.2410039E2,-8.598367E-2,1.580833E2,2.9221773E1,4E0,2.8278697E-2,2.227633E-1,9.98184E-2,3E0,-1.6917348E-2,-8.5468456E-2,4.47137E-2,-2.4393367E-2,1.7836837E-2,1.2587842E-1,-8.395066E-2,-3.338774E-3],"split_indices":[0,1,1,0,0,0,0,0,0,0,2,0,0,0,2,0,0,0,0,0,0,0,0],"split_type":[0,0,0,0,0,0,0,0,0,0,0,0,0,0,0,0,0,0,0,0,0,0,0],"sum_hessian":[6.645709E1,4.805004E1,1.8407055E1,3.8020267E1,1.0029774E1,6.0690503E0,1.2338004E1,4.1073723E0,3.3912895E1,7.409369E0,2.620404E0,1.9978431E0,4.071207E0,1.9187776E0,1.0419227E1,3.001249E1,3.9004047E0,2.3303022E0,5.0790668E0,1.4515556E0,1.1688484E0,3.678695E0,6.740532E0],"tree_param":{"num_deleted":"0","num_feature":"3","num_nodes":"23","size_leaf_vector":"1"}},{"base_weights":[4.4674403E-3,-2.003486E-1,4.9680197E-1,-3.3309984E-1,2.694367E-1,1.421994E0,-8.7138794E-2,-4.1625154E-1,1.0704489E-1,2.6937202E-3,7.917284E-1,2.5948155E-1,1.7898731E0,8.7969816E-1,-3.4708476E-1,-6.51327E-2,-2.0860692E-2,-6.472308E-2,4.445619E-2,4.042454E-2,-2.2768771E-2,1.662111E-2,1.12062626E-1,4.424741E-2,-5.175407E-3,2.4893656E-1,1.0525099E-1,1.4138673E-1,-7.659722E-3,-8.2178384E-2,-3.0560528E-3],"categories":[],"categories_nodes":[],"categories_segments":[],"categories_sizes":[],"default_left":[0,0,0,0,0,0,0,0,0,0,0,0,0,0,0,0,0,0,0,0,0,0,0,0,0,0,0,0,0,0,0],"id":3,"left_children":[1,3,5,7,9,11,13,15,17,19,21,23,25,27,29,-1,-1,-1,-1,-1,-1,-1,-1,-1,-1,-1,-1,-1,-1,-1,-1],"loss_changes":[6.876667E0,3.0942035E0,1.0946602E1,1.4356313E0,1.553616E0,2.8752174E0,3.6287074E0,1.4345961E0,2.0277994E0,8.686838E-1,5.8969665E-1,1.9642174E-1,3.5202408E-1,1.6841183E0,1.6484942E0,0E0,0E0,0E0,0E0,0E0,0E0,0E0,0E0,0E0,0E0,0E0,0E0,0E0,0E0,0E0,0E0],"parents":[2147483647,0,0,1,1,2,2,3,3,4,4,5,5,6,6,7,7,8,8,9,9,10,10,11,11,12,12,13,13,14,14],"right_children":[2,4,6,8,10,12,14,16,18,20,22,24,26,28,30,-1,-1,-1,-1,-1,-1,-1,-1,-1,-1,-1,-1,-1,-1,-1,-1],"split_conditions":[2.0085262E2,1.9E1,5E0,6E0,1.23467186E2,3.147913E2,2.2410039E2,5.9792404E1,2.546754E1,2.9221773E1,4E0,2.4419534E2,2E0,1.5E1,3E0,-6.51327E-2,-2.0860692E-2,-6.472308E-2,4.445619E-2,4.042454E-2,-2.2768771E-2,1.662111E-2,1.12062626E-1,4.424741E-2,-5.175407E-3,2.4893656E-1,1.0525099E-1,1.4138673E-1,-7.659722E-3,-8.2178384E-2,-3.0560528E-3],"split_indices":[0,1,1,2,0,0,0,0,0,0,2,0,2,1,2,0,0,0,0,0,0,0,0,0,0,0,0,0,0,0,0],"split_type":[0,0,0,0,0,0,0,0,0,0,0,0,0,0,0,0,0,0,0,0,0,0,0,0,0,0,0,0,0,0,0],"sum_hessian":[6.620812E1,4.7175648E1,1.9032473E1,3.7008728E1,1.016692E1,6.8090653E0,1.2223408E1,3.1173708E1,5.83502E0,7.395218E0,2.7717018E0,2.0467138E0,4.7623515E0,2.0848622E0,1.0138545E1,1.3618923E1,1.7554785E1,1.5201647E0,4.314855E0,2.4209158E0,4.9743023E0,1.4739032E0,1.2977985E0,1.0233569E0,1.0233569E0,1.2246046E0,3.5377467E0,1.0306668E0,1.0541954E0,3.4172852E0,6.72126E0],"tree_param":{"num_deleted":"0","num_feature":"3","num_nodes":"31","size_leaf_vector":"1"}},{"base_weights":[9.720749E-3,-1.8365663E-1,4.5795038E-1,-2.4628021E-1,6.9514203E-1,1.245169E0,-7.698665E-2,-4.6943465E-1,-6.124877E-2,2.2684246E-2,8.927155E-2,2.4329983E-1,1.5409184E0,5.14042E-1,-4.6672976E-1,-5.872164E-2,9.874909E-3,3.8729448E-2,-2.824814E-2,-5.893127E-3,4.2527035E-2,1.8665463E-1,6.755211E-2,-5.645247E-2,8.95369E-2,-6.511661E-2,4.201537E-2],"categories":[],"categories_nodes":[],"categories_segments":[],"categories_sizes":[],"default_left":[0,0,0,0,0,0,0,0,0,0,0,0,0,0,0,0,0,0,0,0,0,0,0,0,0,0,0],"id":4,"left_children":[1,3,5,7,9,11,13,15,17,-1,-1,19,21,23,25,-1,-1,-1,-1,-1,-1,-1,-1,-1,-1,-1,-1],"loss_changes":[5.866936E0,2.7755127E0,8.684168E0,1.8257241E0,1.1295271E-1,2.087267E0,3.2539637E0,1.4104085E0,2.6600537E0,0E0,0E0,1.9453055E-1,4.9421406E-1,2.8397222E0,1.6491035E0,0E0,0E0,0E0,0E0,0E0,0E0,0E0,0E0,0E0,0E0,0E0,0E0],"parents":[2147483647,0,0,1,1,2,2,3,3,4,4,5,5,6,6,7,7,8,8,11,11,12,12,13,13,14,14],"right_children":[2,4,6,8,10,12,14,16,18,-1,-1,20,22,24,26,-1,-1,-1,-1,-1,-1,-1,-1,-1,-1,-1,-1],"split_conditions":[2.0085262E2,2.3E1,5E0,5.9792404E1,1.0024805E2,3.147913E2,2.646837E2,6E0,9.0342354E1,2.2684246E-2,8.927155E-2,4E0,4.4132468E2,2E0,6E0,-5.872164E-2,9.874909E-3,3.8729448E-2,-2.824814E-2,-5.893127E-3,4.2527035E-2,1.8665463E-1,6.755211E-2,-5.645247E-2,8.95369E-2,-6.511661E-2,4.201537E-2],"split_indices":[0,1,1,0,0,0,0,2,0,0,0,2,0,2,2,0,0,0,0,0,0,0,0,0,0,0,0],"split_type":[0,0,0,0,0,0,0,0,0,0,0,0,0,0,0,0,0,0,0,0,0,0,0,0,0,0,0],"sum_hessian":[6.5716644E1,4.632231E1,1.9394333E1,4.391282E1,2.4094932E0,7.3096647E0,1.2084668E1,1.9209017E1,2.4703802E1,1.3523116E0,1.0571815E0,2.0814111E0,5.2282534E0,4.675519E0,7.409149E0,1.5883041E1,3.325975E0,7.9119387E0,1.6791864E1,1.0363343E0,1.0450768E0,2.9582646E0,2.269989E0,1.0957671E0,3.579752E0,6.35363E0,1.055519E0],"tree_param":{"num_deleted":"0","num_feature":"3","num_nodes":"27","size_leaf_vector":"1"}},{"base_weights":[1.2914306E-2,-1.6740908E-1,4.1571167E-1,-2.9511803E-1,2.6021105E-1,1.0875435E0,-7.100262E-2,-1.6377073E-2,-4.3880582E-1,1.3800628E-2,7.168661E-1,2.2813922E-1,1.3253851E0,7.4176997E-1,-3.1508014E-1,-7.34192E-2,1.96126E-2,-6.644936E-2,-2.5492191E-2,4.051959E-2,-2.1552071E-2,1.617957E-2,9.882693E-2,4.472082E-2,-9.032398E-3,1.9957885E-1,7.391717E-2,1.1865076E-1,-9.031699E-3,-7.929131E-2,-2.2726923E-3],"categories":[],"categories_nodes":[],"categories_segments":[],"categories_sizes":[],"default_left":[0,0,0,0,0,0,0,0,0,0,0,0,0,0,0,0,0,0,0,0,0,0,0,0,0,0,0,0,0,0,0],"id":5,"left_children":[1,3,5,7,9,11,13,15,17,19,21,23,25,27,29,-1,-1,-1,-1,-1,-1,-1,-1,-1,-1,-1,-1,-1,-1,-1,-1],"loss_changes":[4.8855777E0,2.6169572E0,6.875721E0,1.4461148E0,1.2535565E0,1.495511E0,2.8117268E0,2.185136E0,8.2264805E-1,8.3342594E-1,4.2998433E-1,2.5767946E-1,1.1505127E0,1.3281319E0,1.4761623E0,0E0,0E0,0E0,0E0,0E0,0E0,0E0,0E0,0E0,0E0,0E0,0E0,0E0,0E0,0E0,0E0],"parents":[2147483647,0,0,1,1,2,2,3,3,4,4,5,5,6,6,7,7,8,8,9,9,10,10,11,11,12,12,13,13,14,14],"right_children":[2,4,6,8,10,12,14,16,18,20,22,24,26,28,30,-1,-1,-1,-1,-1,-1,-1,-1,-1,-1,-1,-1,-1,-1,-1,-1],"split_conditions":[2.0085262E2,1.9E1,5E0,7E0,1.23467186E2,3.147913E2,2.2410039E2,1.8753935E1,3E0,2.9221773E1,4E0,2.4135277E2,2E0,1.5E1,3E0,-7.34192E-2,1.96126E-2,-6.644936E-2,-2.5492191E-2,4.051959E-2,-2.1552071E-2,1.617957E-2,9.882693E-2,4.472082E-2,-9.032398E-3,1.9957885E-1,7.391717E-2,1.1865076E-1,-9.031699E-3,-7.929131E-2,-2.2726923E-3],"split_indices":[0,1,1,1,0,0,0,0,2,0,2,0,2,1,2,0,0,0,0,0,0,0,0,0,0,0,0,0,0,0,0],"split_type":[0,0,0,0,0,0,0,0,0,0,0,0,0,0,0,0,0,0,0,0,0,0,0,0,0,0,0,0,0,0,0],"sum_hessian":[6.5305016E1,4.551386E1,1.9791155E1,3.5285645E1,1.0228213E1,7.7958126E0,1.1995341E1,1.2381215E1,2.2904428E1,7.312578E0,2.9156358E0,2.1145213E0,5.681291E0,2.2993808E0,9.695961E0,2.2673507E0,1.0113864E1,9.109873E0,1.3794556E1,2.4182622E0,4.8943157E0,1.4816103E0,1.4340255E0,1.0132458E0,1.1012754E0,1.5286077E0,4.1526837E0,1.2208914E0,1.0784894E0,3.0305476E0,6.6654134E0],"tree_param":{"num_deleted":"0","num_feature":"3","num_nodes":"31","size_leaf_vector":"1"}},{"base_weights":[1.5460942E-2,-1.5388781E-1,3.833821E-1,-2.7641445E-1,2.4251796E-1,9.686727E-1,-6.3469954E-2,-1.9131733E-1,-8.257383E-2,8.268052E-2,9.445421E-2,2.1440716E-1,1.1681185E0,3.7903988E-1,-4.8655957E-1,-2.7398799E-2,8.090168E-2,-1.7110033E-2,6.1440945E-2,4.162569E-2,-8.595352E-3,1.7502862E-1,6.548306E-2,-4.204054E-2,8.209667E-2,-8.013554E-2,-2.6797305E-3],"categories":[],"categories_nodes":[],"categories_segments":[],"categories_sizes":[],"default_left":[0,0,0,0,0,0,0,0,0,0,0,0,0,0,0,0,0,0,0,0,0,0,0,0,0,0,0],"id":6,"left_children":[1,3,5,7,9,11,13,15,-1,17,-1,19,21,23,25,-1,-1,-1,-1,-1,-1,-1,-1,-1,-1,-1,-1],"loss_changes":[4.16633E0,2.2942758E0,5.5707455E0,1.501322E0,1.196592E0,1.1307259E0,2.5965126E0,2.8710256E0,0E0,1.5016524E0,0E0,2.264436E-1,9.5646954E-1,2.7685354E0,9.9515057E-1,0E0,0E0,0E0,0E0,0E0,0E0,0E0,0E0,0E0,0E0,0E0,0E0],"parents":[2147483647,0,0,1,1,2,2,3,3,4,4,5,5,6,6,7,7,9,9,11,11,12,12,13,13,14,14],"right_children":[2,4,6,8,10,12,14,16,-1,18,-1,20,22,24,26,-1,-1,-1,-1,-1,-1,-1,-1,-1,-1,-1,-1],"split_conditions":[2.0085262E2,1.9E1,5E0,1.580833E2,1.5361261E2,3.147913E2,2.9013046E2,1.4628294E2,-8.257383E-2,5E0,9.445421E-2,2.4135277E2,2E0,1.1E1,4E0,-2.7398799E-2,8.090168E-2,-1.7110033E-2,6.1440945E-2,4.162569E-2,-8.595352E-3,1.7502862E-1,6.548306E-2,-4.204054E-2,8.209667E-2,-8.013554E-2,-2.6797305E-3],"split_indices":[0,1,1,0,0,0,0,0,0,2,0,0,2,1,2,0,0,0,0,0,0,0,0,0,0,0,0],"split_type":[0,0,0,0,0,0,0,0,0,0,0,0,0,0,0,0,0,0,0,0,0,0,0,0,0,0,0],"sum_hessian":[6.492088E1,4.485604E1,2.0064844E1,3.4496178E1,1.0359863E1,8.18123E0,1.1883614E1,3.103651E1,3.459665E0,9.34904E0,1.010823E0,2.144847E0,6.036383E0,5.8593884E0,6.024225E0,2.933803E1,1.6984804E0,6.7876735E0,2.5613668E0,1.0520122E0,1.0928347E0,1.6992048E0,4.337178E0,2.1032712E0,3.756117E0,3.1348436E0,2.8893816E0],"tree_param":{"num_deleted":"0","num_feature":"3","num_nodes":"27","size_leaf_vector":"1"}},{"base_weights":[1.807799E-2,-3.0093053E-1,1.9315575E-1,-7.9915084E-2,-1.8705858E-1,6.654166E-1,-3.6312994E-2,2.8245427E-2,-4.367186E-1,2.2634444E-1,1.037829E0,-3.3596736E-1,2.0512205E-1,-6.698131E-2,2.115804E-2,-7.115837E-2,-1.02851285E-4,6.8523325E-2,-1.1613252E-2,1.4507465E-1,4.799899E-2,4.3871965E-2,-4.3351527E-2,3.9128695E-2,-7.2852634E-2],"categories":[],"categories_nodes":[],"categories_segments":[],"categories_sizes":[],"default_left":[0,0,0,0,0,0,0,0,0,0,0,0,0,0,0,0,0,0,0,0,0,0,0,0,0],"id":7,"left_children":[1,3,5,-1,7,9,11,13,15,17,19,21,23,-1,-1,-1,-1,-1,-1,-1,-1,-1,-1,-1,-1],"loss_changes":[3.7177582E0,1.1899478E0,4.6748476E0,0E0,1.1154896E0,2.0682511E0,2.2270277E0,1.672192E0,1.1446029E0,1.2964613E0,9.9487066E-1,1.2246791E0,3.2643335E0,0E0,0E0,0E0,0E0,0E0,0E0,0E0,0E0,0E0,0E0,0E0,0E0],"parents":[2147483647,0,0,1,1,2,2,4,4,5,5,6,6,7,7,8,8,9,9,10,10,11,11,12,12],"right_children":[2,4,6,-1,8,10,12,14,16,18,20,22,24,-1,-1,-1,-1,-1,-1,-1,-1,-1,-1,-1,-1],"split_conditions":[7.246662E1,1E0,5E0,-7.9915084E-2,3.815737E1,3.147913E2,1.4E1,5E0,5.9792404E1,1.2816408E2,4.1269403E2,8.306349E1,3.4061273E2,-6.698131E-2,2.115804E-2,-7.115837E-2,-1.02851285E-4,6.8523325E-2,-1.1613252E-2,1.4507465E-1,4.799899E-2,4.3871965E-2,-4.3351527E-2,3.9128695E-2,-7.2852634E-2],"split_indices":[0,2,1,0,0,0,1,1,0,0,0,0,0,0,0,0,0,0,0,0,0,0,0,0,0],"split_type":[0,0,0,0,0,0,0,0,0,0,0,0,0,0,0,0,0,0,0,0,0,0,0,0,0],"sum_hessian":[6.452456E1,2.2609335E1,4.1915222E1,3.08661E0,1.9522726E1,1.3085218E1,2.8830004E1,1.0958823E1,8.563902E0,6.7430177E0,6.342201E0,1.2689291E1,1.6140713E1,1.7275571E0,9.231266E0,4.8628364E0,3.7010655E0,2.4540255E0,4.2889924E0,2.7247005E0,3.6175008E0,1.0279826E0,1.1661308E1,1.39417095E1,2.199003E0],"tree_param":{"num_deleted":"0","num_feature":"3","num_nodes":"25","size_leaf_vector":"1"}},{"base_weights":[1.5514245E-2,5.095609E-1,-8.67763E-2,2.0329678E-2,1.1362635E0,-3.7519258E-1,9.188295E-2,-6.1815303E-2,2.7631727E-1,1.5846215E-1,4.9573636E-1,-5.792777E-1,5.2830228E-3,-6.481725E-2,4.8467943E-1,8.1205584E-2,-4.3315616E-2,9.7833075E-2,-2.3865547E-2,1.1624546E-3,-6.595303E-2,2.2370322E-2,-6.257352E-2,-1.4767933E-2,6.294348E-2,7.617313E-2,-4.08197E-2],"categories":[],"categories_nodes":[],"categories_segments":[],"categories_sizes":[],"default_left":[0,0,0,0,0,0,0,0,0,0,0,0,0,0,0,0,0,0,0,0,0,0,0,0,0,0,0],"id":8,"left_children":[1,3,5,7,9,11,13,-1,15,-1,17,19,21,23,25,-1,-1,-1,-1,-1,-1,-1,-1,-1,-1,-1,-1],"loss_changes":[3.3501415E0,3.4619129E0,2.8711166E0,1.3805534E0,6.403041E-1,1.6534038E0,2.173184E0,0E0,2.6225846E0,0E0,1.4737983E0,6.6410255E-1,1.2992707E0,1.5746013E0,2.7947812E0,0E0,0E0,0E0,0E0,0E0,0E0,0E0,0E0,0E0,0E0,0E0,0E0],"parents":[2147483647,0,0,1,1,2,2,3,3,4,4,5,5,6,6,8,8,10,10,11,11,12,12,13,13,14,14],"right_children":[2,4,6,8,10,12,14,-1,16,-1,18,20,22,24,26,-1,-1,-1,-1,-1,-1,-1,-1,-1,-1,-1,-1],"split_conditions":[3E0,3.147913E2,3E0,4.2699192E1,2E0,1.7E1,2.1069495E2,-6.1815303E-2,1.4746875E2,1.5846215E-1,4.4132468E2,4E0,2.0435521E2,2.3E1,3.9532852E2,8.1205584E-2,-4.3315616E-2,9.7833075E-2,-2.3865547E-2,1.1624546E-3,-6.595303E-2,2.2370322E-2,-6.257352E-2,-1.4767933E-2,6.294348E-2,7.617313E-2,-4.08197E-2],"split_indices":[1,0,2,0,2,1,0,0,0,0,0,1,0,1,0,0,0,0,0,0,0,0,0,0,0,0,0],"split_type":[0,0,0,0,0,0,0,0,0,0,0,0,0,0,0,0,0,0,0,0,0,0,0,0,0,0,0],"sum_hessian":[6.441682E1,1.0366553E1,5.4050266E1,6.4016147E0,3.9649386E0,2.0253782E1,3.3796482E1,1.4271781E0,4.9744368E0,1.4653119E0,2.4996266E0,1.2842581E1,7.4112015E0,2.4755598E1,9.040885E0,2.7518592E0,2.2225776E0,1.3079576E0,1.191669E0,1.6378917E0,1.1204689E1,5.985035E0,1.4261669E0,2.2819296E1,1.9363018E0,7.012001E0,2.028884E0],"tree_param":{"num_deleted":"0","num_feature":"3","num_nodes":"27","size_leaf_vector":"1"}},{"base_weights":[1.5809843E-2,-2.5729515E-2,1.3365415E-1,-3.1622538E-1,9.3287416E-2,-1.411781E-1,-8.2825854E-2,1.5812734E-1,-5.2533096E-1,-4.0804602E-2,2.3787474E-2,5.19946E-2,9.3969045E-4,2.2750165E-2,-8.2904406E-2],"categories":[],"categories_nodes":[],"categories_segments":[],"categories_sizes":[],"default_left":[0,0,0,0,0,0,0,0,0,0,0,0,0,0,0],"id":9,"left_children":[1,3,-1,5,7,9,-1,11,13,-1,-1,-1,-1,-1,-1],"loss_changes":[3.6104186E0,2.2482958E0,0E0,1.575205E0,1.940067E0,1.6422155E0,0E0,2.291483E0,1.2457515E0,0E0,0E0,0E0,0E0,0E0,0E0],"parents":[2147483647,0,0,1,1,3,3,4,4,5,5,7,7,8,8],"right_children":[2,4,-1,6,8,10,-1,12,14,-1,-1,-1,-1,-1,-1],"split_conditions":[6.5012195E2,5.9792404E1,1.3365415E-1,4.4083324E1,4.4132468E2,4E0,-8.2825854E-2,5E0,2E0,-4.0804602E-2,2.3787474E-2,5.19946E-2,9.3969045E-4,2.2750165E-2,-8.2904406E-2],"split_indices":[0,0,0,0,0,2,0,1,2,0,0,0,0,0,0],"split_type":[0,0,0,0,0,0,0,0,0,0,0,0,0,0,0],"sum_hessian":[6.418187E1,6.317541E1,1.0064604E0,1.7879137E1,4.5296276E1,1.427478E1,3.6043568E0,4.1672768E1,3.6235075E0,8.332141E0,5.942639E0,1.1412798E1,3.025997E1,1.1137409E0,2.5097666E0],"tree_param":{"num_deleted":"0","num_feature":"3","num_nodes":"15","size_leaf_vector":"1"}},{"base_weights":[1.4019393E-2,-2.5430767E-2,1.2216115E-1,-2.9766914E-1,8.2864106E-2,-1.3015585E-1,-8.111067E-2,1.4179605E-1,-5.021992E-1,-3.845744E-2,2.134752E-2,4.555741E-2,8.48042E-4,2.1417301E-2,-8.061592E-2],"categories":[],"categories_nodes":[],"categories_segments":[],"categories_sizes":[],"default_left":[0,0,0,0,0,0,0,0,0,0,0,0,0,0,0],"id":10,"left_children":[1,3,-1,5,7,9,-1,11,13,-1,-1,-1,-1,-1,-1],"loss_changes":[3.1342258E0,1.9131974E0,0E0,1.4810617E0,1.6782546E0,1.4022862E0,0E0,1.8000822E0,1.1493492E0,0E0,0E0,0E0,0E0,0E0,0E0],"parents":[2147483647,0,0,1,1,3,3,4,4,5,5,7,7,8,8],"right_children":[2,4,-1,6,8,10,-1,12,14,-1,-1,-1,-1,-1,-1],"split_conditions":[6.5012195E2,5.9792404E1,1.2216115E-1,4.4083324E1,4.4132468E2,4E0,-8.111067E-2,5E0,2E0,-3.845744E-2,2.134752E-2,4.555741E-2,8.48042E-4,2.1417301E-2,-8.061592E-2],"split_indices":[0,0,0,0,0,2,0,1,2,0,0,0,0,0,0],"split_type":[0,0,0,0,0,0,0,0,0,0,0,0,0,0,0],"sum_hessian":[6.413809E1,6.305706E1,1.0810354E0,1.7447575E1,4.5609486E1,1.4100625E1,3.3469481E0,4.2124073E1,3.4854116E0,8.033564E0,6.0670614E0,1.1839888E1,3.0284187E1,1.1263123E0,2.3590994E0],"tree_param":{"num_deleted":"0","num_feature":"3","num_nodes":"15","size_leaf_vector":"1"}},{"base_weights":[1.2263655E-2,-2.51469E-2,1.1196595E-1,-2.8010768E-1,7.3557146E-2,-1.19967535E-1,-7.940355E-2,1.2729827E-1,-4.8025855E-1,-3.6188427E-2,1.91895E-2,-1.0715814E-2,2.656787E-2,2.0164909E-2,-7.840385E-2],"categories":[],"categories_nodes":[],"categories_segments":[],"categories_sizes":[],"default_left":[0,0,0,0,0,0,0,0,0,0,0,0,0,0,0],"id":11,"left_children":[1,3,-1,5,7,9,-1,11,13,-1,-1,-1,-1,-1,-1],"loss_changes":[2.72455E0,1.6296192E0,0E0,1.3904374E0,1.4565547E0,1.1966931E0,0E0,1.4407046E0,1.0605901E0,0E0,0E0,0E0,0E0,0E0,0E0],"parents":[2147483647,0,0,1,1,3,3,4,4,5,5,7,7,8,8],"right_children":[2,4,-1,6,8,10,-1,12,14,-1,-1,-1,-1,-1,-1],"split_conditions":[6.5012195E2,5.9792404E1,1.1196595E-1,4.4083324E1,4.4132468E2,4E0,-7.940355E-2,3E0,2E0,-3.6188427E-2,1.91895E-2,-1.0715814E-2,2.656787E-2,2.0164909E-2,-7.840385E-2],"split_indices":[0,0,0,0,0,2,0,2,2,0,0,0,0,0,0],"split_type":[0,0,0,0,0,0,0,0,0,0,0,0,0,0,0],"sum_hessian":[6.4085815E1,6.2936943E1,1.1488729E0,1.7052097E1,4.5884846E1,1.3941388E1,3.1107101E0,4.2528145E1,3.3566995E0,7.7608085E0,6.180579E0,1.5868297E1,2.665985E1,1.1381179E0,2.2185817E0],"tree_param":{"num_deleted":"0","num_feature":"3","num_nodes":"15","size_leaf_vector":"1"}},{"base_weights":[1.0140863E-2,-2.5255222E-2,1.0288473E-1,-2.3254126E-1,7.980945E-2,-7.4607395E-2,-1.2761764E-1,6.0884225E-1,4.5549916E-3,6.0535055E-3,-3.65652E-2,1.01429895E-1,2.0684594E-2,3.1683445E-2,-1.590164E-2],"categories":[],"categories_nodes":[],"categories_segments":[],"categories_sizes":[],"default_left":[0,0,0,0,0,0,0,0,0,0,0,0,0,0,0],"id":12,"left_children":[1,3,-1,5,7,-1,9,11,13,-1,-1,-1,-1,-1,-1],"loss_changes":[2.3735847E0,1.4101071E0,0E0,1.0766046E0,1.7150273E0,0E0,8.849377E-1,6.6478443E-1,2.0313601E0,0E0,0E0,0E0,0E0,0E0,0E0],"parents":[2147483647,0,0,1,1,3,3,4,4,6,6,7,7,8,8],"right_children":[2,4,-1,6,8,-1,10,12,14,-1,-1,-1,-1,-1,-1],"split_conditions":[6.5012195E2,7.246662E1,1.0288473E-1,1E0,9.0342354E1,-7.4607395E-2,3.815737E1,7E0,5E0,6.0535055E-3,-3.65652E-2,1.01429895E-1,2.0684594E-2,3.1683445E-2,-1.590164E-2],"split_indices":[0,0,0,2,0,0,0,1,1,0,0,0,0,0,0],"split_type":[0,0,0,0,0,0,0,0,0,0,0,0,0,0,0],"sum_hessian":[6.410585E1,6.2895676E1,1.2101715E0,2.074795E1,4.2147728E1,2.4832795E0,1.826467E1,4.365832E0,3.7781895E1,1.06176815E1,7.646989E0,1.4152471E0,2.950585E0,1.2665258E1,2.5116636E1],"tree_param":{"num_deleted":"0","num_feature":"3","num_nodes":"15","size_leaf_vector":"1"}},{"base_weights":[1.0826198E-2,-2.268562E-2,9.4759054E-2,-2.5342637E-1,6.327719E-2,-1.03489295E-1,-7.681141E-2,1.1316778E-1,-4.674866E-1,-4.6327397E-2,8.116384E-3,2.991781E-3,4.795474E-2,1.7833283E-2,-7.6624244E-2],"categories":[],"categories_nodes":[],"categories_segments":[],"categories_sizes":[],"default_left":[0,0,0,0,0,0,0,0,0,0,0,0,0,0,0],"id":13,"left_children":[1,3,-1,5,7,9,-1,11,13,-1,-1,-1,-1,-1,-1],"loss_changes":[2.0592194E0,1.2784518E0,0E0,1.2690738E0,1.3019817E0,1.0134351E0,0E0,1.3253386E0,9.562338E-1,0E0,0E0,0E0,0E0,0E0,0E0],"parents":[2147483647,0,0,1,1,3,3,4,4,5,5,7,7,8,8],"right_children":[2,4,-1,6,8,10,-1,12,14,-1,-1,-1,-1,-1,-1],"split_conditions":[6.5012195E2,5.9792404E1,9.4759054E-2,4.4083324E1,4.4132468E2,1.3079099E1,-7.681141E-2,3.147913E2,2E0,-4.6327397E-2,8.116384E-3,2.991781E-3,4.795474E-2,1.7833283E-2,-7.6624244E-2],"split_indices":[0,0,0,0,0,0,0,0,2,0,0,0,0,0,0],"split_type":[0,0,0,0,0,0,0,0,0,0,0,0,0,0,0],"sum_hessian":[6.391076E1,6.2645462E1,1.2652966E0,1.647508E1,4.6170383E1,1.3688473E1,2.7866073E0,4.2922546E1,3.247838E0,4.130864E0,9.557609E0,3.5856724E1,7.065823E0,1.1547344E0,2.0931036E0],"tree_param":{"num_deleted":"0","num_feature":"3","num_nodes":"15","size_leaf_vector":"1"}},{"base_weights":[8.955586E-3,-2.272066E-2,8.745489E-2,-1.9987811E-1,8.2940884E-2,-3.05921E-1,3.8471085E-1,1.5346614E-1,-7.914596E-2,-5.063737E-2,1.0095889E-2,8.142176E-2,-2.8895736E-2,-3.203407E-3,6.423583E-2],"categories":[],"categories_nodes":[],"categories_segments":[],"categories_sizes":[],"default_left":[0,0,0,0,0,0,0,0,0,0,0,0,0,0,0],"id":14,"left_children":[1,3,-1,5,7,9,11,13,-1,-1,-1,-1,-1,-1,-1],"loss_changes":[1.7979666E0,1.2058717E0,0E0,1.6073471E0,2.6192937E0,1.7555159E0,1.4310327E0,3.4957504E0,0E0,0E0,0E0,0E0,0E0,0E0,0E0],"parents":[2147483647,0,0,1,1,3,3,4,4,5,5,6,6,7,7],"right_children":[2,4,-1,6,8,10,12,14,-1,-1,-1,-1,-1,-1,-1],"split_conditions":[6.5012195E2,3E0,8.745489E-2,3.836204E2,4.1269403E2,1.7E1,3E0,2.1069495E2,-7.914596E-2,-5.063737E-2,1.0095889E-2,8.142176E-2,-2.8895736E-2,-3.203407E-3,6.423583E-2],"split_indices":[0,2,0,0,0,1,1,0,0,0,0,0,0,0,0],"split_type":[0,0,0,0,0,0,0,0,0,0,0,0,0,0,0],"sum_hessian":[6.3849663E1,6.2534958E1,1.314705E0,2.3030008E1,3.950495E1,1.989737E1,3.132639E0,3.731942E1,2.1855288E0,1.3166336E1,6.731033E0,1.7855824E0,1.3470565E0,2.7731676E1,9.587745E0],"tree_param":{"num_deleted":"0","num_feature":"3","num_nodes":"15","size_leaf_vector":"1"}},{"base_weights":[8.742364E-3,3.391369E-1,-6.5900214E-2,-4.032137E-2,8.299647E-1,-3.1078047E-1,7.168376E-2,1.8100166E-1,-6.289686E-2,1.1584597E-1,3.587145E-1,-5.1972795E-1,4.4912476E-2,-4.701015E-2,3.4231743E-1,-5.6901533E-2,4.621138E-2,-2.8124982E-2,7.635707E-2,-1.4534587E-3,-5.9674036E-2,2.660063E-2,-6.1023988E-2,-7.1709886E-2,4.1201073E-3,9.021423E-2,9.822086E-4],"categories":[],"categories_nodes":[],"categories_segments":[],"categories_sizes":[],"default_left":[0,0,0,0,0,0,0,0,0,0,0,0,0,0,0,0,0,0,0,0,0,0,0,0,0,0,0],"id":15,"left_children":[1,3,5,7,9,11,13,15,-1,-1,17,19,21,23,25,-1,-1,-1,-1,-1,-1,-1,-1,-1,-1,-1,-1],"loss_changes":[1.6170237E0,2.2831783E0,1.827589E0,1.1256189E0,4.0691352E-1,1.4698551E0,1.1442504E0,1.6166503E0,0E0,0E0,1.1554832E0,4.7143626E-1,1.3389196E0,1.5245708E0,2.0066304E0,0E0,0E0,0E0,0E0,0E0,0E0,0E0,0E0,0E0,0E0,0E0,0E0],"parents":[2147483647,0,0,1,1,2,2,3,3,4,4,5,5,6,6,7,7,10,10,11,11,12,12,13,13,14,14],"right_children":[2,4,6,8,10,12,14,16,-1,-1,18,20,22,24,26,-1,-1,-1,-1,-1,-1,-1,-1,-1,-1,-1,-1],"split_conditions":[3E0,3.147913E2,3E0,2.1420993E2,2E0,1.7E1,2.1069495E2,4.2699192E1,-6.289686E-2,1.1584597E-1,4E0,4E0,2.0435521E2,5E0,2.646837E2,-5.6901533E-2,4.621138E-2,-2.8124982E-2,7.635707E-2,-1.4534587E-3,-5.9674036E-2,2.660063E-2,-6.1023988E-2,-7.1709886E-2,4.1201073E-3,9.021423E-2,9.822086E-4],"split_indices":[1,0,2,0,2,1,0,0,0,0,2,1,0,1,0,0,0,0,0,0,0,0,0,0,0,0,0],"split_type":[0,0,0,0,0,0,0,0,0,0,0,0,0,0,0,0,0,0,0,0,0,0,0,0,0,0,0],"sum_hessian":[6.366251E1,1.1079082E1,5.2583427E1,6.766083E0,4.312999E0,1.8463009E1,3.412042E1,5.4205465E0,1.3455365E0,1.6821511E0,2.6308477E0,1.1340185E1,7.122824E0,2.4292543E1,9.827873E0,1.1985679E0,4.2219787E0,1.1377277E0,1.49312E0,1.6572871E0,9.682898E0,5.769704E0,1.3531202E0,1.996555E0,2.229599E1,3.0236628E0,6.8042107E0],"tree_param":{"num_deleted":"0","num_feature":"3","num_nodes":"27","size_leaf_vector":"1"}},{"base_weights":[7.478631E-3,-2.1585086E-2,7.832679E-2,1.4679074E-1,-1.1246516E-1,-6.539773E-2,2.4232297E-1,-3.9454082E-1,7.018537E-2,-4.78728E-2,3.5227165E-2,7.896805E-3,-4.5441844E-2,1.7241666E-2,-5.4363072E-2],"categories":[],"categories_nodes":[],"categories_segments":[],"categories_sizes":[],"default_left":[0,0,0,0,0,0,0,0,0,0,0,0,0,0,0],"id":16,"left_children":[1,3,-1,5,7,-1,9,11,13,-1,-1,-1,-1,-1,-1],"loss_changes":[1.4715822E0,9.8298365E-1,0E0,1.8853679E0,2.170253E0,0E0,1.8253764E0,5.035739E-1,1.7309402E0,0E0,0E0,0E0,0E0,0E0,0E0],"parents":[2147483647,0,0,1,1,3,3,4,4,6,6,7,7,8,8],"right_children":[2,4,-1,6,8,-1,10,12,14,-1,-1,-1,-1,-1,-1],"split_conditions":[6.5012195E2,7E0,7.832679E-2,1.8753935E1,1.4E1,-6.539773E-2,1E0,1.8472515E1,2.9013046E2,-4.78728E-2,3.5227165E-2,7.896805E-3,-4.5441844E-2,1.7241666E-2,-5.4363072E-2],"split_indices":[0,1,0,0,1,0,1,0,0,0,0,0,0,0,0],"split_type":[0,0,0,0,0,0,0,0,0,0,0,0,0,0,0],"sum_hessian":[6.3516544E1,6.2159996E1,1.3565493E0,2.157403E1,4.0585968E1,1.6764134E0,1.9897615E1,1.5495485E1,2.509048E1,2.1888547E0,1.7708761E1,1.7037209E0,1.3791764E1,2.212471E1,2.9657712E0],"tree_param":{"num_deleted":"0","num_feature":"3","num_nodes":"15","size_leaf_vector":"1"}},{"base_weights":[5.067641E-3,-2.2376033E-2,7.267107E-2,-2.2261022E-1,4.949907E-2,-4.1183103E-2,-6.3990057E-1,7.46662E-2,1.4546711E-2,-6.795087E-2,1.2953833E-2,-2.7554256E-3,-7.862061E-2,-6.602241E-2,5.318064E-3],"categories":[],"categories_nodes":[],"categories_segments":[],"categories_sizes":[],"default_left":[0,0,0,0,0,0,0,0,0,0,0,0,0,0,0],"id":17,"left_children":[1,3,-1,5,7,9,11,-1,13,-1,-1,-1,-1,-1,-1],"loss_changes":[1.29307E0,9.188385E-1,0E0,1.2488352E0,1.1401407E0,1.483818E0,4.2944336E-1,0E0,1.2342857E0,0E0,0E0,0E0,0E0,0E0,0E0],"parents":[2147483647,0,0,1,1,3,3,4,4,5,5,6,6,8,8],"right_children":[2,4,-1,6,8,10,12,-1,14,-1,-1,-1,-1,-1,-1],"split_conditions":[6.5012195E2,5.9792404E1,7.267107E-2,3.815737E1,6.43565E1,5E0,8E0,7.46662E-2,6.934311E1,-6.795087E-2,1.2953833E-2,-2.7554256E-3,-7.862061E-2,-6.602241E-2,5.318064E-3],"split_indices":[0,0,0,0,0,1,1,0,0,0,0,0,0,0,0],"split_type":[0,0,0,0,0,0,0,0,0,0,0,0,0,0,0],"sum_hessian":[6.347054E1,6.2078712E1,1.3918252E0,1.5843555E1,4.6235157E1,1.1808301E1,4.035254E0,1.2352126E0,4.4999943E1,1.862862E0,9.945439E0,1.0073656E0,3.0278883E0,1.5656391E0,4.3434307E1],"tree_param":{"num_deleted":"0","num_feature":"3","num_nodes":"15","size_leaf_vector":"1"}},{"base_weights":[3.4725158E-3,2.9004386E-1,-6.2220402E-2,-4.339941E-2,7.14061E-1,-2.9495782E-1,6.536954E-2,2.4301971E-1,-4.7774124E-1,1.035367E-1,2.87716E-1,-4.9291718E-1,2.2495972E-2,3.0689645E-1,-6.629686E-2,-2.6950551E-2,9.232771E-2,-6.134224E-2,-1.0104172E-2,-2.9789982E-2,6.664743E-2,-1.3755768E-2,-6.0949445E-2,2.2119215E-2,-5.953015E-2,-3.8075894E-2,4.55405E-2,-5.322643E-2,1.4409572E-2],"categories":[],"categories_nodes":[],"categories_segments":[],"categories_sizes":[],"default_left":[0,0,0,0,0,0,0,0,0,0,0,0,0,0,0,0,0,0,0,0,0,0,0,0,0,0,0,0,0],"id":18,"left_children":[1,3,5,7,9,11,13,15,17,-1,19,21,23,25,27,-1,-1,-1,-1,-1,-1,-1,-1,-1,-1,-1,-1,-1,-1],"loss_changes":[1.2316481E0,1.7556934E0,1.6010287E0,1.0828822E0,4.4557333E-1,1.2077954E0,1.1404955E0,2.1126878E0,1.1309302E-1,0E0,1.0230455E0,4.0385747E-1,1.146888E0,1.4606502E0,2.3921912E0,0E0,0E0,0E0,0E0,0E0,0E0,0E0,0E0,0E0,0E0,0E0,0E0,0E0,0E0],"parents":[2147483647,0,0,1,1,2,2,3,3,4,4,5,5,6,6,7,7,8,8,10,10,11,11,12,12,13,13,14,14],"right_children":[2,4,6,8,10,12,14,16,18,-1,20,22,24,26,28,-1,-1,-1,-1,-1,-1,-1,-1,-1,-1,-1,-1,-1,-1],"split_conditions":[3E0,3.147913E2,3E0,1.4746875E2,2E0,1.7E1,1E1,1.0174402E2,4E0,1.035367E-1,4E0,1E0,2.0435521E2,4E0,1.4E1,-2.6950551E-2,9.232771E-2,-6.134224E-2,-1.0104172E-2,-2.9789982E-2,6.664743E-2,-1.3755768E-2,-6.0949445E-2,2.2119215E-2,-5.953015E-2,-3.8075894E-2,4.55405E-2,-5.322643E-2,1.4409572E-2],"split_indices":[1,0,2,0,2,1,1,0,2,0,2,2,0,1,1,0,0,0,0,0,0,0,0,0,0,0,0,0,0],"split_type":[0,0,0,0,0,0,0,0,0,0,0,0,0,0,0,0,0,0,0,0,0,0,0,0,0,0,0,0,0],"sum_hessian":[6.3465122E1,1.1198576E1,5.2266544E1,6.771319E0,4.427257E0,1.804281E1,3.4223736E1,4.3459473E0,2.4253716E0,1.7100451E0,2.7172117E0,1.0772512E1,7.270297E0,1.1604941E1,2.2618795E1,2.822907E0,1.5230402E0,1.3211142E0,1.1042575E0,1.1510316E0,1.5661801E0,3.1995075E0,7.573005E0,5.9867907E0,1.2835064E0,1.7833616E0,9.821579E0,6.56005E0,1.6058746E1],"tree_param":{"num_deleted":"0","num_feature":"3","num_nodes":"29","size_leaf_vector":"1"}},{"base_weights":[2.2988413E-3,2.708897E-1,-5.9513405E-2,-4.105243E-2,6.637185E-1,-2.775976E-1,5.7082403E-2,2.2746588E-1,-4.618352E-1,9.659454E-2,2.6663756E-1,-5.3086185E-1,-4.348705E-2,-7.6472186E-2,2.5792196E-1,-2.5416816E-2,8.2635604E-2,-9.324327E-3,-6.0256094E-2,6.3527755E-2,-2.8862698E-2,-8.70383E-3,-7.670202E-2,9.47248E-3,-5.9147697E-2,2.0729676E-3,-5.4748088E-2,3.7944872E-2,-2.289935E-2],"categories":[],"categories_nodes":[],"categories_segments":[],"categories_sizes":[],"default_left":[0,0,0,0,0,0,0,0,0,0,0,0,0,0,0,0,0,0,0,0,0,0,0,0,0,0,0,0,0],"id":19,"left_children":[1,3,5,7,9,11,13,15,17,-1,19,21,23,25,27,-1,-1,-1,-1,-1,-1,-1,-1,-1,-1,-1,-1,-1,-1],"loss_changes":[1.0838293E0,1.523649E0,1.3660482E0,9.8051417E-1,3.9808083E-1,1.0838585E0,9.70071E-1,1.7676222E0,1.1749548E-1,0E0,9.494003E-1,8.638325E-1,8.733077E-1,1.0209072E0,9.377594E-1,0E0,0E0,0E0,0E0,0E0,0E0,0E0,0E0,0E0,0E0,0E0,0E0,0E0,0E0],"parents":[2147483647,0,0,1,1,2,2,3,3,4,4,5,5,6,6,7,7,8,8,10,10,11,11,12,12,13,13,14,14],"right_children":[2,4,6,8,10,12,14,16,18,-1,20,22,24,26,28,-1,-1,-1,-1,-1,-1,-1,-1,-1,-1,-1,-1,-1,-1],"split_conditions":[3E0,3.147913E2,3E0,1.4746875E2,2E0,1.3E1,1.5573369E2,1.0174402E2,2.1420993E2,9.659454E-2,4.4132468E2,7.8878944E1,2.2128218E2,1.3406676E2,3.536364E2,-2.5416816E-2,8.2635604E-2,-9.324327E-3,-6.0256094E-2,6.3527755E-2,-2.8862698E-2,-8.70383E-3,-7.670202E-2,9.47248E-3,-5.9147697E-2,2.0729676E-3,-5.4748088E-2,3.7944872E-2,-2.289935E-2],"split_indices":[1,0,2,0,2,1,0,0,0,0,0,0,0,0,0,0,0,0,0,0,0,0,0,0,0,0,0,0,0],"split_type":[0,0,0,0,0,0,0,0,0,0,0,0,0,0,0,0,0,0,0,0,0,0,0,0,0,0,0,0,0],"sum_hessian":[6.331121E1,1.1211549E1,5.209966E1,6.7482862E0,4.4632626E0,1.7669416E1,3.4430244E1,4.3999343E0,2.348352E0,1.7208619E0,2.7424006E0,7.8786287E0,9.790787E0,2.1050974E1,1.337927E1,2.757735E0,1.6421993E0,1.1082329E0,1.240119E0,1.5615735E0,1.1808273E0,3.211557E0,4.667072E0,8.47931E0,1.3114767E0,1.8242306E1,2.8086684E0,1.0883597E1,2.4956722E0],"tree_param":{"num_deleted":"0","num_feature":"3","num_nodes":"29","size_leaf_vector":"1"}}]},"name":"gbtree"},"learner_model_param":{"base_score":"[7.2E-2]","boost_from_average":"1","num_class":"0","num_feature":"3","num_target":"1"},"objective":{"name":"binary:logistic","reg_loss_param":{"scale_pos_weight":"1"}}},"version":[3,2,0]}